digraph Tree {
node [shape=box] ;
0 [label="X[0] <= 43.5\ngini = 0.496\nsamples = 11\nvalue = [5, 6]"] ;
1 [label="X[1] <= 95.0\ngini = 0.375\nsamples = 8\nvalue = [2, 6]"] ;
0 -> 1 [labeldistance=2.5, labelangle=45, headlabel="True"] ;
2 [label="gini = 0.245\nsamples = 7\nvalue = [1, 6]"] ;
1 -> 2 ;
3 [label="gini = 0.0\nsamples = 1\nvalue = [1, 0]"] ;
1 -> 3 ;
4 [label="gini = 0.0\nsamples = 3\nvalue = [3, 0]"] ;
0 -> 4 [labeldistance=2.5, labelangle=-45, headlabel="False"] ;
}
